{
  "type": "dqn",
  "format": "turbo-kart-headless-dqn-v1",
  "observationKeys": [
    "speed",
    "forwardSpeed",
    "headingError",
    "targetDistance",
    "lateralOffset",
    "onRoad",
    "driftCharge",
    "boostActive",
    "spinout",
    "throttleLock",
    "amended",
    "nextHeadingError",
    "nextTargetDistance",
    "carMaxSpeed",
    "carAcceleration",
    "carTurnSpeed",
    "carWeight",
    "carGripNormal",
    "carGripDrift",
    "citationCount",
    "ultimateCharge",
    "shieldActive",
    "invulnActive",
    "doubleBlind",
    "placeboSlow",
    "mergePulling",
    "mergeTethered",
    "roadRay-90",
    "roadRay-60",
    "roadRay-35",
    "roadRay-15",
    "roadRay0",
    "roadRay15",
    "roadRay35",
    "roadRay60",
    "roadRay90",
    "kartRay-90",
    "kartRay-60",
    "kartRay-35",
    "kartRay-15",
    "kartRay0",
    "kartRay15",
    "kartRay35",
    "kartRay60",
    "kartRay90",
    "hazardRay-90",
    "hazardRay-60",
    "hazardRay-35",
    "hazardRay-15",
    "hazardRay0",
    "hazardRay15",
    "hazardRay35",
    "hazardRay60",
    "hazardRay90",
    "pickupRay-90",
    "pickupRay-60",
    "pickupRay-35",
    "pickupRay-15",
    "pickupRay0",
    "pickupRay15",
    "pickupRay35",
    "pickupRay60",
    "pickupRay90",
    "boosterRay-90",
    "boosterRay-60",
    "boosterRay-35",
    "boosterRay-15",
    "boosterRay0",
    "boosterRay15",
    "boosterRay35",
    "boosterRay60",
    "boosterRay90",
    "item:boost",
    "item:shield",
    "item:handling",
    "item:conflict",
    "item:placebo",
    "item:doubleblind",
    "item:dossier",
    "item:deauth",
    "item:mergerequest",
    "item:hotfix",
    "item:fasttrack",
    "speed@-1",
    "forwardSpeed@-1",
    "headingError@-1",
    "targetDistance@-1",
    "lateralOffset@-1",
    "onRoad@-1",
    "driftCharge@-1",
    "boostActive@-1",
    "spinout@-1",
    "throttleLock@-1",
    "amended@-1",
    "nextHeadingError@-1",
    "nextTargetDistance@-1",
    "carMaxSpeed@-1",
    "carAcceleration@-1",
    "carTurnSpeed@-1",
    "carWeight@-1",
    "carGripNormal@-1",
    "carGripDrift@-1",
    "citationCount@-1",
    "ultimateCharge@-1",
    "shieldActive@-1",
    "invulnActive@-1",
    "doubleBlind@-1",
    "placeboSlow@-1",
    "mergePulling@-1",
    "mergeTethered@-1",
    "roadRay-90@-1",
    "roadRay-60@-1",
    "roadRay-35@-1",
    "roadRay-15@-1",
    "roadRay0@-1",
    "roadRay15@-1",
    "roadRay35@-1",
    "roadRay60@-1",
    "roadRay90@-1",
    "kartRay-90@-1",
    "kartRay-60@-1",
    "kartRay-35@-1",
    "kartRay-15@-1",
    "kartRay0@-1",
    "kartRay15@-1",
    "kartRay35@-1",
    "kartRay60@-1",
    "kartRay90@-1",
    "hazardRay-90@-1",
    "hazardRay-60@-1",
    "hazardRay-35@-1",
    "hazardRay-15@-1",
    "hazardRay0@-1",
    "hazardRay15@-1",
    "hazardRay35@-1",
    "hazardRay60@-1",
    "hazardRay90@-1",
    "pickupRay-90@-1",
    "pickupRay-60@-1",
    "pickupRay-35@-1",
    "pickupRay-15@-1",
    "pickupRay0@-1",
    "pickupRay15@-1",
    "pickupRay35@-1",
    "pickupRay60@-1",
    "pickupRay90@-1",
    "boosterRay-90@-1",
    "boosterRay-60@-1",
    "boosterRay-35@-1",
    "boosterRay-15@-1",
    "boosterRay0@-1",
    "boosterRay15@-1",
    "boosterRay35@-1",
    "boosterRay60@-1",
    "boosterRay90@-1",
    "item:boost@-1",
    "item:shield@-1",
    "item:handling@-1",
    "item:conflict@-1",
    "item:placebo@-1",
    "item:doubleblind@-1",
    "item:dossier@-1",
    "item:deauth@-1",
    "item:mergerequest@-1",
    "item:hotfix@-1",
    "item:fasttrack@-1",
    "speed@-2",
    "forwardSpeed@-2",
    "headingError@-2",
    "targetDistance@-2",
    "lateralOffset@-2",
    "onRoad@-2",
    "driftCharge@-2",
    "boostActive@-2",
    "spinout@-2",
    "throttleLock@-2",
    "amended@-2",
    "nextHeadingError@-2",
    "nextTargetDistance@-2",
    "carMaxSpeed@-2",
    "carAcceleration@-2",
    "carTurnSpeed@-2",
    "carWeight@-2",
    "carGripNormal@-2",
    "carGripDrift@-2",
    "citationCount@-2",
    "ultimateCharge@-2",
    "shieldActive@-2",
    "invulnActive@-2",
    "doubleBlind@-2",
    "placeboSlow@-2",
    "mergePulling@-2",
    "mergeTethered@-2",
    "roadRay-90@-2",
    "roadRay-60@-2",
    "roadRay-35@-2",
    "roadRay-15@-2",
    "roadRay0@-2",
    "roadRay15@-2",
    "roadRay35@-2",
    "roadRay60@-2",
    "roadRay90@-2",
    "kartRay-90@-2",
    "kartRay-60@-2",
    "kartRay-35@-2",
    "kartRay-15@-2",
    "kartRay0@-2",
    "kartRay15@-2",
    "kartRay35@-2",
    "kartRay60@-2",
    "kartRay90@-2",
    "hazardRay-90@-2",
    "hazardRay-60@-2",
    "hazardRay-35@-2",
    "hazardRay-15@-2",
    "hazardRay0@-2",
    "hazardRay15@-2",
    "hazardRay35@-2",
    "hazardRay60@-2",
    "hazardRay90@-2",
    "pickupRay-90@-2",
    "pickupRay-60@-2",
    "pickupRay-35@-2",
    "pickupRay-15@-2",
    "pickupRay0@-2",
    "pickupRay15@-2",
    "pickupRay35@-2",
    "pickupRay60@-2",
    "pickupRay90@-2",
    "boosterRay-90@-2",
    "boosterRay-60@-2",
    "boosterRay-35@-2",
    "boosterRay-15@-2",
    "boosterRay0@-2",
    "boosterRay15@-2",
    "boosterRay35@-2",
    "boosterRay60@-2",
    "boosterRay90@-2",
    "item:boost@-2",
    "item:shield@-2",
    "item:handling@-2",
    "item:conflict@-2",
    "item:placebo@-2",
    "item:doubleblind@-2",
    "item:dossier@-2",
    "item:deauth@-2",
    "item:mergerequest@-2",
    "item:hotfix@-2",
    "item:fasttrack@-2",
    "speed@-3",
    "forwardSpeed@-3",
    "headingError@-3",
    "targetDistance@-3",
    "lateralOffset@-3",
    "onRoad@-3",
    "driftCharge@-3",
    "boostActive@-3",
    "spinout@-3",
    "throttleLock@-3",
    "amended@-3",
    "nextHeadingError@-3",
    "nextTargetDistance@-3",
    "carMaxSpeed@-3",
    "carAcceleration@-3",
    "carTurnSpeed@-3",
    "carWeight@-3",
    "carGripNormal@-3",
    "carGripDrift@-3",
    "citationCount@-3",
    "ultimateCharge@-3",
    "shieldActive@-3",
    "invulnActive@-3",
    "doubleBlind@-3",
    "placeboSlow@-3",
    "mergePulling@-3",
    "mergeTethered@-3",
    "roadRay-90@-3",
    "roadRay-60@-3",
    "roadRay-35@-3",
    "roadRay-15@-3",
    "roadRay0@-3",
    "roadRay15@-3",
    "roadRay35@-3",
    "roadRay60@-3",
    "roadRay90@-3",
    "kartRay-90@-3",
    "kartRay-60@-3",
    "kartRay-35@-3",
    "kartRay-15@-3",
    "kartRay0@-3",
    "kartRay15@-3",
    "kartRay35@-3",
    "kartRay60@-3",
    "kartRay90@-3",
    "hazardRay-90@-3",
    "hazardRay-60@-3",
    "hazardRay-35@-3",
    "hazardRay-15@-3",
    "hazardRay0@-3",
    "hazardRay15@-3",
    "hazardRay35@-3",
    "hazardRay60@-3",
    "hazardRay90@-3",
    "pickupRay-90@-3",
    "pickupRay-60@-3",
    "pickupRay-35@-3",
    "pickupRay-15@-3",
    "pickupRay0@-3",
    "pickupRay15@-3",
    "pickupRay35@-3",
    "pickupRay60@-3",
    "pickupRay90@-3",
    "boosterRay-90@-3",
    "boosterRay-60@-3",
    "boosterRay-35@-3",
    "boosterRay-15@-3",
    "boosterRay0@-3",
    "boosterRay15@-3",
    "boosterRay35@-3",
    "boosterRay60@-3",
    "boosterRay90@-3",
    "item:boost@-3",
    "item:shield@-3",
    "item:handling@-3",
    "item:conflict@-3",
    "item:placebo@-3",
    "item:doubleblind@-3",
    "item:dossier@-3",
    "item:deauth@-3",
    "item:mergerequest@-3",
    "item:hotfix@-3",
    "item:fasttrack@-3"
  ],
  "actions": [
    {
      "name": "forward",
      "steer": 0,
      "throttle": 1,
      "brake": 0,
      "drift": false
    },
    {
      "name": "soft_left",
      "steer": -0.45,
      "throttle": 1,
      "brake": 0,
      "drift": false
    },
    {
      "name": "soft_right",
      "steer": 0.45,
      "throttle": 1,
      "brake": 0,
      "drift": false
    },
    {
      "name": "hard_left",
      "steer": -1,
      "throttle": 1,
      "brake": 0,
      "drift": false
    },
    {
      "name": "hard_right",
      "steer": 1,
      "throttle": 1,
      "brake": 0,
      "drift": false
    },
    {
      "name": "drift_left",
      "steer": -1,
      "throttle": 1,
      "brake": 0,
      "drift": true
    },
    {
      "name": "drift_right",
      "steer": 1,
      "throttle": 1,
      "brake": 0,
      "drift": true
    },
    {
      "name": "brake",
      "steer": 0,
      "throttle": 0,
      "brake": 1,
      "drift": false
    },
    {
      "name": "use_item",
      "steer": 0,
      "throttle": 1,
      "brake": 0,
      "drift": false,
      "item": true
    },
    {
      "name": "use_ultimate",
      "steer": 0,
      "throttle": 1,
      "brake": 0,
      "drift": false,
      "ultimate": true
    }
  ],
  "layers": [
    {
      "weights": [
        -0.0027632592245936394,
        -0.013355012983083725,
        3.1834983825683594,
        -0.7657420039176941,
        -0.4433530271053314,
        0.25512266159057617,
        0.6308730840682983,
        -0.3036692440509796,
        -0.15039055049419403,
        0.03855670988559723,
        0.03896007314324379,
        -0.5568922758102417,
        0.19214417040348053,
        0.020959248766303062,
        0.07643675804138184,
        -0.013726248405873775,
        -0.0004404671199154109,
        0.03324442729353905,
        0.1316874772310257,
        0.012571871280670166,
        0.007212508469820023,
        -0.1816018968820572,
        -1.3296990394592285,
        -1.2404195070266724,
        0.3103528320789337,
        1.3946056365966797,
        -0.5498402714729309,
        -0.1229790672659874,
        -0.4243457615375519,
        -0.7212699055671692,
        -0.9238893389701843,
        -0.8320311307907104,
        -0.8478253483772278,
        -1.4824401140213013,
        -1.4359304904937744,
        -0.24915346503257751,
        -0.038371358066797256,
        0.05805635079741478,
        0.08265674114227295,
        0.08362273126840591,
        0.2057819813489914,
        0.25367170572280884,
        0.13014116883277893,
        0.026571357622742653,
        -0.06887176632881165,
        0.07514648884534836,
        0.05108906701207161,
        0.04478839784860611,
        0.11353930830955505,
        -0.03813270106911659,
        -0.030456339940428734,
        0.0956728607416153,
        0.01241376530379057,
        -0.04476988688111305,
        -0.027218589559197426,
        -0.023057421669363976,
        -0.0923832505941391,
        -0.12025000900030136,
        -0.10652462393045425,
        -0.031005844473838806,
        0.1230715662240982,
        0.06046845018863678,
        -0.03677678853273392,
        0.0029034109320491552,
        -0.08999384939670563,
        0.08236425369977951,
        0.3767450451850891,
        0.3660583794116974,
        0.33816149830818176,
        0.14498686790466309,
        0.040610767900943756,
        -0.22778424620628357,
        -1.4258196353912354,
        -0.5645849704742432,
        0.3632655739784241,
        -0.6266935467720032,
        -0.2952496111392975,
        1.298579216003418,
        0.08956654369831085,
        0.3321041762828827,
        -2.5788958072662354,
        -0.7411959767341614,
        0.6370034217834473,
        -0.08558139950037003,
        -0.051652178168296814,
        0.4398619830608368,
        -0.06634968519210815,
        -0.4552967846393585,
        0.20680087804794312,
        -0.047246161848306656,
        0.0978037416934967,
        0.12706147134304047,
        0.02479664236307144,
        -0.002949910005554557,
        1.022188663482666,
        -0.0659288763999939,
        0.01978432573378086,
        0.12484510987997055,
        0.026573363691568375,
        0.017826376482844353,
        0.039248328655958176,
        0.026599934324622154,
        0.025517575442790985,
        0.022326916456222534,
        0.015628259629011154,
        -0.3553166091442108,
        -0.274945467710495,
        0.05956919118762016,
        0.6760496497154236,
        -0.23894131183624268,
        0.004565567709505558,
        -0.21825608611106873,
        -0.3762163817882538,
        -0.5258442163467407,
        -0.4539206326007843,
        -0.5182506442070007,
        -0.8778681755065918,
        -0.9237780570983887,
        -0.1619797796010971,
        0.08238539844751358,
        0.12186677753925323,
        0.07534247636795044,
        0.03380711004137993,
        0.15497370064258575,
        0.22896338999271393,
        0.12137217819690704,
        -0.027977818623185158,
        -0.0203581303358078,
        0.04232969507575035,
        0.1194448322057724,
        -0.00014476726937573403,
        0.05514311045408249,
        -0.09183734655380249,
        -0.009346886537969112,
        0.05756955221295357,
        0.05833664536476135,
        -0.05569840222597122,
        -0.12778891623020172,
        -0.04385166987776756,
        -0.06271708756685257,
        -0.03984527289867401,
        -0.10705114156007767,
        0.014686014503240585,
        0.00498922448605299,
        0.011462613940238953,
        0.010639223270118237,
        0.024818414822220802,
        -0.0913376659154892,
        -0.06789015978574753,
        0.18799933791160583,
        0.21756644546985626,
        0.22390078008174896,
        0.043866388499736786,
        -0.004202309064567089,
        -0.09372669458389282,
        -0.8992564678192139,
        -0.5956316590309143,
        0.10209312289953232,
        -0.2237463891506195,
        -0.5728901624679565,
        0.5691630840301514,
        0.110270194709301,
        0.18556034564971924,
        -1.2867265939712524,
        -1.07417631149292,
        0.8259204626083374,
        -0.0775904431939125,
        -0.12576644122600555,
        0.13471221923828125,
        -0.05112643912434578,
        -0.3390088975429535,
        0.11859887838363647,
        0.31812402606010437,
        0.20901179313659668,
        0.09328658133745193,
        -0.0035902271047234535,
        -0.03885960951447487,
        0.5650601387023926,
        0.02176121436059475,
        0.02852283976972103,
        0.1288546919822693,
        0.01847606897354126,
        -0.03423415496945381,
        0.09725142270326614,
        0.06999649107456207,
        0.10668647289276123,
        0.06253914535045624,
        0.11738163977861404,
        -0.1763327568769455,
        -0.0033786012791097164,
        -0.2277499884366989,
        0.033347148448228836,
        -0.11208533495664597,
        0.11534426361322403,
        0.02832525596022606,
        -0.16653017699718475,
        -0.2608039081096649,
        -0.24866034090518951,
        -0.23294399678707123,
        -0.6562690734863281,
        -0.5930511355400085,
        -0.16665059328079224,
        0.016029952093958855,
        0.10055781900882721,
        0.04957501217722893,
        -0.01639348454773426,
        0.05670996010303497,
        0.13029412925243378,
        -0.005905027501285076,
        0.04916372522711754,
        0.02859550341963768,
        -0.031624726951122284,
        0.029199425131082535,
        0.01953255757689476,
        -0.02415265142917633,
        -0.09346871078014374,
        -0.05352862551808357,
        0.001183819375000894,
        -0.01451850775629282,
        -0.02043643593788147,
        -0.07621853053569794,
        -0.022477366030216217,
        -0.021462151780724525,
        -0.017762670293450356,
        0.08929305523633957,
        -0.008959820494055748,
        -0.05364525318145752,
        0.08441825211048126,
        0.016902556642889977,
        -0.014820626005530357,
        0.008584358729422092,
        -0.04806622117757797,
        0.1524358093738556,
        0.166457399725914,
        0.07487607002258301,
        0.04365171864628792,
        -0.01026431005448103,
        -0.009226090274751186,
        -0.9790769219398499,
        -0.49238237738609314,
        0.21724854409694672,
        0.04914518818259239,
        -0.002775567350909114,
        -0.009601815603673458,
        0.027484767138957977,
        0.07012441754341125,
        -1.1546339988708496,
        -1.1369398832321167,
        0.7774632573127747,
        0.08343184739351273,
        -0.003201737767085433,
        0.004664937499910593,
        0.03838035836815834,
        -0.016002876684069633,
        0.018332870677113533,
        0.0892418697476387,
        0.04121307283639908,
        0.031129125505685806,
        -0.03180968388915062,
        -0.017994793131947517,
        0.2574368417263031,
        0.027990873903036118,
        0.04610858112573624,
        0.030132651329040527,
        0.02923833206295967,
        -0.014048885554075241,
        0.08761715143918991,
        0.04350918158888817,
        0.055788230150938034,
        0.12541894614696503,
        -0.00668716337531805,
        0.08790909498929977,
        -0.1725836843252182,
        -0.3274546265602112,
        0.04538242518901825,
        -0.06549300998449326,
        0.06864160299301147,
        -0.0016199855599552393,
        -0.15760423243045807,
        -0.15432731807231903,
        -0.1495642066001892,
        -0.20330539345741272,
        -0.3262408375740051,
        -0.3071748614311218,
        -0.06905833631753922,
        0.03737862780690193,
        0.09470883756875992,
        0.046734828501939774,
        -0.03274409845471382,
        -0.00178869953379035,
        0.05697721987962723,
        0.016752557829022408,
        -0.06344766914844513,
        0.0026121840346604586,
        0.02158537320792675,
        0.07095742970705032,
        -0.0020763189531862736,
        -0.023561101406812668,
        -0.048820436000823975,
        0.06521159410476685,
        0.08219443261623383,
        0.03814525157213211,
        -0.03609807789325714,
        -0.021543290466070175,
        -0.018440360203385353,
        -0.02444188855588436,
        -0.04269729182124138,
        0.047634951770305634,
        0.01615157350897789,
        -0.04861605912446976,
        0.006979647092521191,
        0.02128346636891365,
        -0.07718896865844727,
        0.001237146439962089,
        -0.05620139464735985,
        0.04066114127635956,
        0.05820063129067421,
        0.0446760356426239,
        0.05412082374095917,
        -0.0059674386866390705,
        0.03350168466567993,
        -0.5280023813247681,
        0.04085616394877434,
        0.02096867561340332,
        0.1548561453819275,
        0.07873871922492981,
        -0.35510680079460144,
        -0.1961609423160553,
        -0.061031587421894073,
        -0.3062664866447449,
        -0.8044962286949158,
        0.36342084407806396,
        -2.6757287979125977,
        -1.564003825187683,
        -0.7446702718734741,
        0.33454009890556335,
        -0.16432227194309235,
        -0.27535855770111084,
        -0.7411747574806213,
        -2.7160158157348633,
        0.694354772567749,
        0.039748694747686386,
        0.04191914200782776,
        0.14024554193019867,
        -0.1889350265264511,
        -0.06498370319604874,
        -0.012243214063346386,
        -0.06720025837421417,
        -0.17220604419708252,
        0.04247462376952171,
        -0.02662826143205166,
        -0.7352097034454346,
        0.40491926670074463,
        -0.8739169239997864,
        -0.29508474469184875,
        -0.5490668416023254,
        -0.22559136152267456,
        -0.08083069324493408,
        1.522678017616272,
        -0.5730323195457458,
        -0.8802070021629333,
        -0.27398985624313354,
        -0.9361764788627625,
        -0.30832192301750183,
        0.23197680711746216,
        0.021573374047875404,
        -0.9980841875076294,
        -0.3011687695980072,
        -0.07031521946191788,
        -0.13026899099349976,
        0.08300276100635529,
        0.05174511298537254,
        -0.07185370475053787,
        0.160310760140419,
        0.13235343992710114,
        -0.027499161660671234,
        -0.02898792177438736,
        -0.11425581574440002,
        0.032820966094732285,
        0.012928458862006664,
        -0.011676310561597347,
        0.02259206958115101,
        0.02967008948326111,
        0.1240064799785614,
        0.11602623015642166,
        0.22934536635875702,
        0.14461348950862885,
        0.4009491205215454,
        0.05994300916790962,
        0.3955496549606323,
        0.3298191428184509,
        -0.23291200399398804,
        -0.19488464295864105,
        -0.2390110343694687,
        0.0770871564745903,
        0.04494856670498848,
        0.11501152813434601,
        -0.0860106498003006,
        -0.0025340283755213022,
        0.03937341645359993,
        -0.016104476526379585,
        0.21475446224212646,
        -0.10004107654094696,
        -0.171813502907753,
        -0.36359554529190063,
        -0.745753824710846,
        -1.1821026802062988,
        0.3870731294155121,
        -1.0053458213806152,
        -0.48486652970314026,
        1.3406058549880981,
        -0.8324325084686279,
        -0.06693820655345917,
        0.8001861572265625,
        0.7618913650512695,
        -1.7078970670700073,
        -1.0441524982452393,
        -0.42443132400512695,
        0.30484816431999207,
        -0.10232260823249817,
        -0.6023706197738647,
        0.12854185700416565,
        -0.01174991950392723,
        1.0348420143127441,
        0.022407015785574913,
        -0.029544224962592125,
        0.2480423003435135,
        -0.11685491353273392,
        -0.1107000783085823,
        0.0065263547003269196,
        -0.13901232182979584,
        -0.17282459139823914,
        0.010226252488791943,
        0.015486405231058598,
        -0.6758830547332764,
        0.42109453678131104,
        0.17225369811058044,
        0.237995445728302,
        -1.1071796417236328,
        -0.01678345538675785,
        -0.48731011152267456,
        1.4903669357299805,
        -0.6251001954078674,
        -0.7876302003860474,
        0.13892091810703278,
        0.24477483332157135,
        0.16137605905532837,
        0.21813863515853882,
        -0.41581055521965027,
        -0.5331376194953918,
        -0.8284769654273987,
        -0.1515822857618332,
        -0.024744950234889984,
        0.09384644776582718,
        0.0035478731151670218,
        -0.13640813529491425,
        0.11426842212677002,
        0.053330592811107635,
        -0.1447674185037613,
        0.03576456010341644,
        -0.0712718814611435,
        0.026427676901221275,
        -0.013013779185712337,
        0.06224249675869942,
        -0.03884773701429367,
        -0.018194563686847687,
        0.048096898943185806,
        0.06945843994617462,
        0.19976191222667694,
        0.10335327684879303,
        0.2257215827703476,
        0.2255968302488327,
        0.06082984432578087,
        0.4116801917552948,
        -0.10463452339172363,
        -0.176792174577713,
        -0.18689893186092377,
        0.08693084120750427,
        0.03463686257600784,
        0.06041515991091728,
        -0.003921903669834137,
        0.009357228875160217,
        -0.02831493504345417,
        0.01883224956691265,
        0.007587825879454613,
        -0.01327257975935936,
        -0.00238034431822598,
        -0.29884073138237,
        -0.45794782042503357,
        -1.2093409299850464,
        0.1664775013923645,
        -0.9666905999183655,
        -0.4877212345600128,
        1.064787745475769,
        -0.7761903405189514,
        -0.30496251583099365,
        0.7426902651786804,
        0.7458594441413879,
        -1.4180711507797241,
        -0.29601791501045227,
        -0.0930742546916008,
        0.24584151804447174,
        -0.13235576450824738,
        0.5019444823265076,
        0.3989543616771698,
        0.12395798414945602,
        0.6962983012199402,
        0.032607633620500565,
        -0.051591962575912476,
        -0.015491923317313194,
        -0.14529217779636383,
        -0.11835556477308273,
        -0.010799146257340908,
        -0.12749908864498138,
        -0.09256113320589066,
        0.030428571626544,
        -0.0384921170771122,
        -0.8106753826141357,
        0.3532164990901947,
        0.07524937391281128,
        0.5978967547416687,
        -0.3772197663784027,
        -0.06748277693986893,
        -0.7565028667449951,
        1.480514407157898,
        -0.3443198800086975,
        -0.23803645372390747,
        0.32433566451072693,
        0.5024622678756714,
        0.03758973255753517,
        -0.18946070969104767,
        -0.5371960401535034,
        0.03838052973151207,
        -0.4369461238384247,
        -0.15974557399749756,
        -0.013011553324759007,
        0.13684555888175964,
        -0.13369157910346985,
        -0.04373393952846527,
        0.13166767358779907,
        0.02718929387629032,
        -0.07228394597768784,
        -0.11881597340106964,
        -0.010267917066812515,
        -0.052267272025346756,
        -0.03599623218178749,
        0.0263836532831192,
        0.028676962479948997,
        0.02551393024623394,
        -0.026658428832888603,
        0.09957916289567947,
        0.1469361037015915,
        0.07986798137426376,
        0.2780335545539856,
        0.12727227807044983,
        0.12492242455482483,
        0.18673087656497955,
        -0.1115487664937973,
        -0.17476829886436462,
        -0.3020341992378235,
        0.051321640610694885,
        0.11524993181228638,
        0.020987752825021744,
        -0.00842287577688694,
        -0.013546004891395569,
        -0.09889871627092361,
        -0.011779971420764923,
        0.03520803153514862,
        0.017568416893482208,
        -0.07654602080583572,
        -0.286630779504776,
        -0.39898359775543213,
        -1.1511709690093994,
        0.012151779606938362,
        -0.6907941699028015,
        -0.607694685459137,
        0.9751909375190735,
        -1.1873116493225098,
        -0.4397621750831604,
        0.7985987663269043,
        0.760762631893158,
        -1.0481561422348022,
        -0.06363105028867722,
        0.18572822213172913,
        0.28916823863983154,
        -0.07786362618207932,
        0.49312978982925415,
        -0.06272134929895401,
        0.2048727571964264,
        0.3892121911048889,
        -0.014192715287208557,
        -0.034076087176799774,
        -0.016732951626181602,
        -0.20082199573516846,
        -0.08607684820890427,
        -0.02470588870346546,
        -0.040737222880125046,
        -0.17433711886405945,
        -0.01746397465467453,
        0.019751129671931267,
        -0.7978224158287048,
        0.3573050796985626,
        -0.3640274703502655,
        0.06333264708518982,
        -0.10451731830835342,
        0.19994476437568665,
        -1.2752526998519897,
        1.4206534624099731,
        -0.2617390751838684,
        0.042850691825151443,
        0.007741445209830999,
        0.6077113151550293,
        -0.03772514685988426,
        -0.3365648686885834,
        -0.8953512907028198,
        -0.354560524225235,
        0.16059084236621857,
        -0.20780988037586212,
        -0.11979757994413376,
        0.01837061531841755,
        -0.044600896537303925,
        -0.07990161329507828,
        0.15952427685260773,
        -0.05505666509270668,
        0.07572899013757706,
        -0.08240149915218353,
        -0.17219918966293335,
        -0.13268326222896576,
        -0.01842324249446392,
        -0.005586622282862663,
        -0.05512081831693649,
        0.013372465968132019,
        0.0020356224849820137,
        0.07564147561788559,
        0.2170064002275467,
        0.18002286553382874,
        0.11052016168832779,
        0.2169865369796753,
        0.00342388404533267,
        0.03437453880906105,
        0.01172831654548645,
        0.06673267483711243,
        -0.017765890806913376,
        -0.07894740998744965,
        0.0999273955821991,
        0.022733282297849655,
        0.015858102589845657,
        -0.02949666604399681,
        -0.1490507423877716,
        0.12269681692123413,
        -0.05888450890779495,
        -0.07837043702602386,
        -0.14659175276756287,
        -0.42890965938568115,
        -0.7062363028526306,
        -0.7357560992240906,
        -0.0653204545378685,
        -1.1377882957458496,
        -0.5097604393959045,
        0.8782053589820862,
        -0.6905432939529419,
        -0.3926249146461487,
        0.7500585317611694,
        0.7985413670539856,
        -0.17926360666751862,
        0.1754823923110962,
        3.9049901962280273,
        -0.29508018493652344,
        -0.3327365219593048,
        0.1879938244819641,
        -0.5168598890304565,
        -0.07297280430793762,
        0.5304083824157715,
        0.003586393315345049,
        0.007957731373608112,
        -0.24892844259738922,
        0.30564576387405396,
        0.02457018569111824,
        0.08655981719493866,
        0.12909001111984253,
        0.15119650959968567,
        0.127346932888031,
        0.07910561561584473,
        0.014695806428790092,
        0.1432071179151535,
        0.15718157589435577,
        0.14025816321372986,
        0.2947549819946289,
        0.9527458548545837,
        -0.8735067248344421,
        2.220141887664795,
        -0.11405210942029953,
        -0.18840670585632324,
        0.32769542932510376,
        0.32212239503860474,
        0.29634714126586914,
        0.07310684025287628,
        -0.10085322707891464,
        -0.3117184042930603,
        0.05300213396549225,
        -0.11402012407779694,
        0.02268397808074951,
        -0.18516355752944946,
        -0.06505604833364487,
        -0.17964157462120056,
        -0.14783810079097748,
        0.04271696135401726,
        -0.03621785715222359,
        0.012421626597642899,
        -0.029187142848968506,
        -0.10602167248725891,
        -0.08310303092002869,
        0.03948700800538063,
        0.026250487193465233,
        0.030255567282438278,
        -0.04425525292754173,
        0.047737982124090195,
        0.0014035037020221353,
        0.05434669181704521,
        -0.12943248450756073,
        -0.03875582292675972,
        -0.03664601966738701,
        -0.021046698093414307,
        0.1038598045706749,
        -0.026073476299643517,
        -0.10840930044651031,
        0.04052085056900978,
        -0.1387900710105896,
        -0.03209327906370163,
        -0.12327588349580765,
        0.07252904027700424,
        0.19421535730361938,
        -0.03516484051942825,
        0.021276473999023438,
        0.06972868740558624,
        -0.10377756506204605,
        0.31457436084747314,
        0.13677255809307098,
        -0.19671398401260376,
        1.0069470405578613,
        -0.0565095916390419,
        0.22578342258930206,
        0.2634297013282776,
        -0.08213238418102264,
        -0.34748098254203796,
        1.3247644901275635,
        -0.419832319021225,
        -0.17597521841526031,
        0.06446340680122375,
        0.681685209274292,
        0.1367359161376953,
        -0.09516165405511856,
        -0.0943821370601654,
        -0.4591553807258606,
        -0.2276589423418045,
        0.20334643125534058,
        0.03571568801999092,
        -0.02212379314005375,
        -0.5885261297225952,
        0.5561293959617615,
        0.10790187120437622,
        0.0034958499018102884,
        0.033952582627534866,
        0.1296076774597168,
        0.08696036785840988,
        0.05349401384592056,
        -0.032812897115945816,
        -0.13480669260025024,
        -0.018916694447398186,
        -0.34311163425445557,
        0.353939950466156,
        0.4877799153327942,
        -0.31611138582229614,
        2.1217424869537354,
        0.21659395098686218,
        0.008861207403242588,
        0.26347628235816956,
        0.3574874997138977,
        0.17134226858615875,
        0.2805301249027252,
        0.1991177201271057,
        -0.048008229583501816,
        0.10347489267587662,
        0.0034477156586945057,
        0.06778464466333389,
        -0.0544910691678524,
        -0.06438486278057098,
        -0.12415454536676407,
        -0.07403646409511566,
        0.02695632539689541,
        0.024659015238285065,
        0.06576824188232422,
        -0.07818859815597534,
        0.007798158098012209,
        -0.06842907518148422,
        -0.08424996584653854,
        0.03933378681540489,
        0.04420965909957886,
        -0.004836374428123236,
        -0.016506239771842957,
        -0.00010065165406558663,
        -0.053161367774009705,
        0.07764951884746552,
        0.1330437958240509,
        -0.0213757511228323,
        -0.06330925971269608,
        0.13784469664096832,
        0.011889235116541386,
        -0.07904152572154999,
        0.12221406400203705,
        0.044252242892980576,
        -0.011486075818538666,
        -0.0268231313675642,
        -0.03555817902088165,
        0.07493261247873306,
        0.0050796028226614,
        -0.000832076882943511,
        0.004036408849060535,
        -0.1549539566040039,
        0.3505516052246094,
        0.33899131417274475,
        0.04206157475709915,
        1.0589185953140259,
        0.06455428898334503,
        -0.0935746505856514,
        0.22445690631866455,
        -0.08329324424266815,
        -0.46395421028137207,
        0.010620972141623497,
        -0.3017686605453491,
        -0.14519156515598297,
        0.01500793732702732,
        0.2502169907093048,
        -0.2789715528488159,
        -0.01045780535787344,
        0.007579331286251545,
        -0.33381590247154236,
        0.06354080140590668,
        0.5986128449440002,
        -0.050769057124853134,
        -0.0036066945176571608,
        -0.06668932735919952,
        0.44853201508522034,
        0.09537157416343689,
        0.03336843475699425,
        0.11366452276706696,
        0.11846119910478592,
        0.07864860445261002,
        0.03993838280439377,
        0.13493376970291138,
        0.050146207213401794,
        -0.06670690327882767,
        -0.16501298546791077,
        -0.1130313128232956,
        -0.09792041033506393,
        -0.08277880400419235,
        0.862517774105072,
        0.27049314975738525,
        0.08484634757041931,
        0.13012239336967468,
        0.25287747383117676,
        0.029325231909751892,
        0.2070339471101761,
        0.23120857775211334,
        -0.08063063025474548,
        0.14468590915203094,
        0.0269712433218956,
        0.024374140426516533,
        0.10323803126811981,
        -0.10373718291521072,
        -0.06638117134571075,
        -0.017564065754413605,
        0.029479285702109337,
        -0.03991512954235077,
        0.03185492381453514,
        -0.12022501975297928,
        0.0400528609752655,
        -0.09932143986225128,
        -0.040129680186510086,
        0.05447573587298393,
        -0.054449714720249176,
        0.10217928141355515,
        0.08645772933959961,
        0.024513619020581245,
        -0.08464499562978745,
        0.056597448885440826,
        0.0655520111322403,
        0.018774589523673058,
        -0.09385550767183304,
        0.0612436905503273,
        0.017323261126875877,
        -0.09787103533744812,
        0.020754555240273476,
        -0.06417825818061829,
        -0.08055680990219116,
        -0.04006762057542801,
        -0.05240674316883087,
        -0.02751689963042736,
        -0.0875457301735878,
        0.03229652717709541,
        -0.007957879453897476,
        -0.05801207944750786,
        0.07089206576347351,
        0.19956326484680176,
        -0.016273876652121544,
        0.8167321681976318,
        0.13962480425834656,
        -0.16974680125713348,
        0.2191598266363144,
        -0.1931513100862503,
        -0.053897883743047714,
        -0.19855941832065582,
        -0.03367786481976509,
        -0.041914887726306915,
        0.03350405767560005,
        -0.00016416194557677954,
        -0.23970383405685425,
        0.19756348431110382,
        0.16769827902317047,
        -0.0026446394622325897,
        -0.13644209504127502,
        0.04592118784785271,
        0.05311489477753639,
        0.054759636521339417,
        -0.1652207374572754,
        0.3991766571998596,
        0.09174345433712006,
        0.08412255346775055,
        0.1305675208568573,
        0.12118452042341232,
        0.11899688094854355,
        0.05747023969888687,
        0.04798726364970207,
        -0.051608458161354065,
        -0.11580444872379303,
        -0.13017867505550385,
        0.3013998866081238,
        -0.014079234562814236,
        0.011665316298604012,
        0.30329227447509766,
        0.12252157926559448,
        0.07376854866743088,
        -0.023429928347468376,
        0.20940761268138885,
        -0.03270699083805084,
        0.2018568217754364,
        0.16354961693286896,
        -0.15635685622692108,
        0.03046509064733982,
        0.11555512994527817,
        -0.007509070448577404,
        0.11796834319829941,
        0.0427817776799202,
        -0.03810573369264603,
        0.06235221400856972,
        0.019077930599451065,
        -0.0438956655561924,
        0.03713807836174965,
        -0.003649304620921612,
        -0.06508097052574158,
        -0.04242008924484253,
        -0.08776561170816422,
        0.00920892134308815,
        0.03309428319334984,
        0.028945552185177803,
        0.12281317263841629,
        -0.028376366943120956,
        0.04311714693903923,
        -0.02972455695271492,
        0.057217903435230255,
        -0.012207593768835068,
        -0.05094730108976364,
        0.01084525790065527,
        0.046559471637010574,
        -0.008032337762415409,
        0.06651950627565384,
        -0.09044896811246872,
        -0.06716911494731903,
        -0.017185265198349953,
        -0.020921744406223297,
        -0.09707625955343246,
        -0.12310577929019928,
        0.0686006098985672,
        -0.01649937778711319,
        0.0327259860932827,
        -0.0906047597527504,
        -0.23116649687290192,
        0.054422903805971146,
        0.30258822441101074,
        0.1727301925420761,
        -0.12258841842412949,
        0.02655937150120735,
        -0.17403393983840942,
        -0.11742904782295227,
        -0.16842594742774963,
        0.14115136861801147,
        0.4854360520839691,
        -1.4562835693359375,
        -0.013880339451134205,
        0.13210700452327728,
        -0.258836567401886,
        -0.18569205701351166,
        -0.7220221757888794,
        0.5222651958465576,
        -0.14315326511859894,
        0.05296740680932999,
        -0.045891497284173965,
        -0.27769243717193604,
        0.11064343899488449,
        0.12519310414791107,
        0.09434852749109268,
        -0.04759372025728226,
        -0.11247889697551727,
        -0.016930975019931793,
        -0.04635782539844513,
        0.3083127439022064,
        -0.11668220162391663,
        -0.011375494301319122,
        -1.0476105213165283,
        1.614126443862915,
        0.6999520659446716,
        1.222514033317566,
        -1.5177465677261353,
        0.0994759276509285,
        0.28285858035087585,
        -0.07038849592208862,
        0.5713157653808594,
        0.5102776885032654,
        0.30879220366477966,
        0.18209928274154663,
        0.35112717747688293,
        -0.008876954205334187,
        -0.17890407145023346,
        -0.14456510543823242,
        -0.10598166286945343,
        -0.049509789794683456,
        -0.07765857875347137,
        -0.153647318482399,
        -0.1722959727048874,
        -0.09687544405460358,
        -0.11453761905431747,
        0.11084506660699844,
        0.15389737486839294,
        0.1282663643360138,
        0.06599020212888718,
        -0.016997480764985085,
        0.018716027960181236,
        0.07595531642436981,
        -0.024151159450411797,
        -0.01708185486495495,
        0.17088794708251953,
        0.12172640115022659,
        0.2908226549625397,
        0.31663385033607483,
        -0.0289713554084301,
        0.1724936068058014,
        -0.0534413643181324,
        0.05881993845105171,
        -0.15396007895469666,
        -0.29192739725112915,
        -0.2823212444782257,
        0.21945519745349884,
        0.7411246299743652,
        0.3005114495754242,
        0.2134363204240799,
        -0.17797566950321198,
        -0.14225322008132935,
        0.03818182647228241,
        0.38970786333084106,
        -0.4765831232070923,
        0.7081255912780762,
        -0.4074662923812866,
        -1.0614523887634277,
        0.21653443574905396,
        -0.48883453011512756,
        -0.5804575681686401,
        0.4055648446083069,
        1.3833156824111938,
        0.37991711497306824,
        0.5772750377655029,
        0.5553758144378662,
        -0.02640078216791153,
        -0.02273388020694256,
        -0.14905551075935364,
        -0.07301577180624008,
        -0.23294545710086823,
        0.1801343858242035,
        -0.8213917016983032,
        0.028971392661333084,
        -0.0282936729490757,
        0.09302365779876709,
        0.2017274796962738,
        0.07199458032846451,
        0.10427584499120712,
        -0.07390867918729782,
        -0.06740701198577881,
        -0.03141290321946144,
        -0.04847336560487747,
        0.30202218890190125,
        -0.1379726678133011,
        0.5523403882980347,
        0.45016369223594666,
        -0.9202821254730225,
        0.04633796587586403,
        0.29516059160232544,
        -1.2761722803115845,
        -0.42817679047584534,
        -0.008039762265980244,
        -0.23109707236289978,
        0.07773792743682861,
        -0.1844739019870758,
        -0.02951774187386036,
        -0.4238988757133484,
        0.08794135600328445,
        0.18467888236045837,
        -0.10098952054977417,
        -0.09210121631622314,
        -0.13256877660751343,
        0.0292860958725214,
        0.04916263744235039,
        -0.09939483553171158,
        -0.07778161764144897,
        -0.038554463535547256,
        -0.1450052261352539,
        0.14270944893360138,
        0.07805574685335159,
        0.04101743549108505,
        0.07147496938705444,
        -0.07071121782064438,
        0.0068244063295423985,
        -0.06317589432001114,
        0.05601983889937401,
        -0.040163617581129074,
        0.02546093426644802,
        0.09243655204772949,
        -0.09546230733394623,
        0.14332562685012817,
        0.2274957150220871,
        -0.0170627161860466,
        -0.08594357967376709,
        -0.05902813747525215,
        -0.04615500941872597,
        -0.007783626206219196,
        -0.08988466113805771,
        0.22511687874794006,
        0.31690725684165955,
        0.21702170372009277,
        0.1406736671924591,
        -0.0035711158998310566,
        0.02785911038517952,
        -0.02355647273361683,
        -0.08424315601587296,
        -0.4778508245944977,
        1.2068010568618774,
        0.254118949174881,
        -0.6735536456108093,
        0.09338699281215668,
        -0.18348808586597443,
        -0.3060372769832611,
        0.9389984011650085,
        0.5831025242805481,
        1.2943698167800903,
        0.08143418282270432,
        0.37131133675575256,
        -0.40194520354270935,
        0.20463183522224426,
        0.1536722183227539,
        -0.226849764585495,
        -0.9262585043907166,
        0.7902407646179199,
        -0.10967608541250229,
        0.0016505841631442308,
        0.038567427545785904,
        0.5177936553955078,
        0.2414313703775406,
        0.15409061312675476,
        0.15572434663772583,
        -0.06104204058647156,
        -0.08305403590202332,
        -0.012939153239130974,
        -0.034158870577812195,
        0.18825018405914307,
        -0.11339772492647171,
        0.4470030665397644,
        0.11736181378364563,
        -0.8118659853935242,
        -0.028086284175515175,
        0.6223952174186707,
        -0.8106526136398315,
        -0.2508681118488312,
        -0.1812731772661209,
        -0.3842349052429199,
        -0.21734483540058136,
        0.021149955689907074,
        -0.11806899309158325,
        -0.3234807550907135,
        0.10812868177890778,
        -0.20093563199043274,
        -0.012519455514848232,
        -0.07711316645145416,
        -0.02301609143614769,
        -0.008246295154094696,
        -0.010533083230257034,
        -0.09958105534315109,
        -0.1077582836151123,
        -0.0067693376913666725,
        0.06451169401407242,
        0.13389259576797485,
        0.05184014141559601,
        0.055457040667533875,
        0.09299421310424805,
        -0.09964201599359512,
        0.09095408022403717,
        -0.04286593943834305,
        0.013059058226644993,
        -0.06881462782621384,
        -0.08008452504873276,
        0.10608410835266113,
        -0.1078435480594635,
        0.2821672260761261,
        0.21863161027431488,
        -0.05219155550003052,
        0.08613337576389313,
        0.015418965369462967,
        0.05131309852004051,
        0.060585953295230865,
        -0.13225504755973816,
        0.33230361342430115,
        0.25433120131492615,
        0.23698143661022186,
        0.0999365970492363,
        -0.05173135921359062,
        -0.012168743647634983,
        0.029895557090640068,
        0.44843584299087524,
        -0.11234477162361145,
        0.4679587483406067,
        0.3621142506599426,
        -0.18069197237491608,
        -0.13713225722312927,
        -0.00012080225860700011,
        0.6575664281845093,
        1.024106740951538,
        0.13929101824760437,
        1.769463300704956,
        -0.06719477474689484,
        -0.10282400995492935,
        -0.7453935742378235,
        0.3616209626197815,
        0.23326478898525238,
        -0.13967998325824738,
        0.5373229384422302,
        0.8412603735923767,
        -0.6567775011062622,
        -0.04892240837216377,
        0.03719168156385422,
        0.4810563921928406,
        0.3876473903656006,
        0.06826425343751907,
        0.08612272888422012,
        0.014571483246982098,
        -0.03311547264456749,
        -0.004810231272131205,
        0.010772442445158958,
        0.25809380412101746,
        -0.24351444840431213,
        0.6547845602035522,
        0.8206473588943481,
        -0.33027753233909607,
        0.9561403393745422,
        0.7828529477119446,
        -0.766867458820343,
        -0.43342500925064087,
        -0.18974605202674866,
        -0.42238807678222656,
        -0.17550495266914368,
        0.010720165446400642,
        -0.24056114256381989,
        -0.3242587149143219,
        -0.4943600296974182,
        -0.3933488726615906,
        0.02969883382320404,
        -0.10055597871541977,
        0.12174925953149796,
        0.03956226631999016,
        0.03139353543519974,
        0.020742207765579224,
        -0.08974193036556244,
        -0.10201103985309601,
        0.03394870460033417,
        0.029371080920100212,
        0.0763995498418808,
        0.1366100013256073,
        0.01885920576751232,
        -0.19143545627593994,
        0.021726597100496292,
        0.11550574004650116,
        0.060695454478263855,
        0.00022533007722813636,
        -0.15422138571739197,
        0.06080549210309982,
        0.0029255456756800413,
        0.12739840149879456,
        0.15248441696166992,
        -0.04902200400829315,
        0.05781465768814087,
        -0.127411887049675,
        -0.04291772469878197,
        -0.013140984810888767,
        -0.06894020736217499,
        0.21930164098739624,
        0.17687194049358368,
        0.04098720848560333,
        0.0949968695640564,
        -0.0034195545595139265,
        0.018316885456442833,
        0.11179275810718536,
        0.7454930543899536,
        0.17530664801597595,
        -0.2160782814025879,
        0.417545348405838,
        0.11798135191202164,
        -0.29828932881355286,
        0.01121697761118412,
        0.9221267700195312,
        0.998873233795166,
        0.11701495200395584,
        1.6066793203353882,
        -0.3138282001018524,
        -0.1572662740945816,
        2.501944065093994,
        0.9572599530220032,
        0.2923881709575653,
        -0.09394285827875137,
        -0.08369747549295425,
        0.10625144839286804,
        0.45701178908348083,
        -0.05472748726606369,
        0.03127779811620712,
        -3.2477452754974365,
        0.7725996971130371,
        -0.1109369546175003,
        -0.12171590328216553,
        0.004642626736313105,
        -0.021519381552934647,
        0.0003037073474843055,
        -0.012364187277853489,
        -0.04325756058096886,
        -0.03871970251202583,
        0.05989575386047363,
        -0.055051665753126144,
        0.796393632888794,
        0.34710225462913513,
        -0.1459014117717743,
        -0.03247379884123802,
        -0.18731330335140228,
        -0.08078572154045105,
        -0.01995660550892353,
        0.1289602667093277,
        0.20057356357574463,
        0.2537948489189148,
        0.16705524921417236,
        0.25229188799858093,
        0.10319830477237701,
        -0.010632693767547607,
        0.03602316230535507,
        0.013165674172341824,
        -0.0008240981842391193,
        -0.009271088056266308,
        -0.07887674868106842,
        -0.12556159496307373,
        -0.12002438306808472,
        -0.057612109929323196,
        -0.026639776304364204,
        -0.060850244015455246,
        -0.03463107347488403,
        -0.08800943940877914,
        0.008574426174163818,
        -0.056371934711933136,
        0.012552257627248764,
        -0.014440367929637432,
        -0.013270708732306957,
        -0.0033535549882799387,
        0.02451563999056816,
        -0.007649831473827362,
        -0.03926773741841316,
        0.008736278861761093,
        0.03043251670897007,
        0.00764781329780817,
        0.027460386976599693,
        -0.03678567707538605,
        0.07517609000205994,
        0.03925461322069168,
        -0.01753704994916916,
        -0.05368727818131447,
        -0.012346378527581692,
        -0.033816080540418625,
        0.013789676129817963,
        0.03431088477373123,
        0.007435236591845751,
        -0.26000815629959106,
        -0.027095524594187737,
        -0.15928055346012115,
        -0.06765429675579071,
        -0.20743846893310547,
        -0.00472148135304451,
        0.29427701234817505,
        0.0609915666282177,
        0.3604925274848938,
        -0.7719069719314575,
        0.16669636964797974,
        -0.03823838382959366,
        0.08463798463344574,
        -0.2069077044725418,
        0.22526292502880096,
        -0.05436405539512634,
        -0.14316540956497192,
        0.2655920386314392,
        0.13697177171707153,
        -0.051546044647693634,
        -0.03553371503949165,
        0.04624864086508751,
        -0.6578551530838013,
        0.20177075266838074,
        -0.11500915884971619,
        -0.12841984629631042,
        -0.035396091639995575,
        0.05123382806777954,
        -0.07644139230251312,
        -0.047390762716531754,
        0.016323495656251907,
        0.04658908024430275,
        0.13751007616519928,
        0.218968465924263,
        0.23671403527259827,
        0.21079054474830627,
        -1.1298719644546509,
        -0.651707649230957,
        -0.21158981323242188,
        -0.0539829395711422,
        -0.15749669075012207,
        0.07550399750471115,
        0.09675917029380798,
        0.204158216714859,
        0.22284181416034698,
        0.0597771555185318,
        -0.026223136112093925,
        -0.004098671488463879,
        -0.006666200235486031,
        0.001972980797290802,
        0.013890217989683151,
        -0.05228238180279732,
        -0.042027901858091354,
        -0.03283382207155228,
        -0.028292793780565262,
        -0.051771923899650574,
        -0.03752965107560158,
        -0.008141005411744118,
        -0.04179763421416283,
        -0.05118260905146599,
        -0.036443568766117096,
        0.012173701077699661,
        0.02400626428425312,
        -0.02139727957546711,
        0.011007974855601788,
        0.04570477828383446,
        0.037376075983047485,
        0.038222525268793106,
        -0.0015970304375514388,
        0.0021961391903460026,
        0.016000693663954735,
        -0.018369125202298164,
        0.01830374076962471,
        -0.05068995803594589,
        0.0018850681371986866,
        0.0530269630253315,
        0.04476418346166611,
        -0.04721284285187721,
        0.04245872423052788,
        -0.031567834317684174,
        -0.08340698480606079,
        -0.052672091871500015,
        0.012804035097360611,
        0.13878707587718964,
        0.028023604303598404,
        -0.008027498610317707,
        -0.042123403400182724,
        -0.08234705775976181,
        0.0016991508891806006,
        0.1865464448928833,
        0.008469746448099613,
        -0.2155860960483551,
        -0.44308918714523315,
        0.09233994781970978,
        0.06070712208747864,
        0.12525507807731628,
        -0.30109113454818726,
        0.07841064035892487,
        -0.03578523173928261,
        -0.043347734957933426,
        0.26916852593421936,
        0.012585494667291641,
        -0.24797707796096802,
        0.033333033323287964,
        -0.010544423945248127,
        -0.015388387255370617,
        0.06665059924125671,
        -0.1600816547870636,
        -0.1841091513633728,
        -0.018314490094780922,
        0.022062577307224274,
        -0.08045624196529388,
        -0.06042824313044548,
        -0.052827414125204086,
        0.054699163883924484,
        0.04477834329009056,
        0.09910961240530014,
        0.0018202762585133314,
        0.18699021637439728,
        -1.4151028394699097,
        -0.5254466533660889,
        -0.06500589102506638,
        -0.03287385404109955,
        -0.1096239686012268,
        0.0442645326256752,
        0.014014721848070621,
        0.11913608759641647,
        0.11446253210306168,
        0.026283692568540573,
        0.060945358127355576,
        -0.019954731687903404,
        -0.042527712881565094,
        -0.03506913781166077,
        -0.017199169844388962,
        -0.029655151069164276,
        -0.04473532363772392,
        -0.053673431277275085,
        -0.02220952697098255,
        -0.045927032828330994,
        -0.014545644633471966,
        0.01582755520939827,
        -0.024730876088142395,
        -0.0004047649563290179,
        -0.030889680609107018,
        -0.006318114697933197,
        0.04050697013735771,
        -0.03124985098838806,
        -0.048349443823099136,
        0.046547021716833115,
        0.023030245676636696,
        0.024442529305815697,
        0.035711247473955154,
        -0.019177882000803947,
        -0.007726775947958231,
        -0.019437581300735474,
        0.005745790898799896,
        -0.08195339888334274,
        -0.036018602550029755,
        0.016311032697558403,
        0.039756953716278076,
        -0.00911928154528141,
        0.0568016953766346,
        -0.013658947311341763,
        -0.02619149163365364,
        -0.03712989017367363,
        0.0016886908560991287,
        0.08695638179779053,
        0.15349207818508148,
        0.060099344700574875,
        -0.030657527968287468,
        -0.22402741014957428,
        0.0037158080376684666,
        0.08339469134807587,
        0.03310135379433632,
        -0.021770035848021507,
        -0.46143656969070435,
        -0.10116181522607803,
        0.04574558883905411,
        0.014006431214511395,
        -0.15426361560821533,
        -0.016439031809568405,
        -0.021367473527789116,
        0.06999170035123825,
        0.11079580336809158,
        -0.015815280377864838,
        -0.0034275574143975973,
        0.02182343415915966,
        0.015370593406260014,
        0.07440771907567978,
        0.09937979280948639,
        -0.08359138667583466,
        -0.14059939980506897,
        0.019932778552174568,
        0.054871223866939545,
        -0.024759309366345406,
        -0.07404056936502457,
        -0.03799837455153465,
        0.11575117707252502,
        -0.023084212094545364,
        0.030032731592655182,
        0.047040343284606934,
        0.2471315562725067,
        -0.46788227558135986,
        -0.2578136920928955,
        -0.10358024388551712,
        -0.05354825779795647,
        -0.0925968661904335,
        -0.0232611745595932,
        0.02048010565340519,
        0.06842619925737381,
        0.014734536409378052,
        -0.004906353075057268,
        0.17558032274246216,
        -0.061276476830244064,
        -0.01598796620965004,
        0.022649716585874557,
        0.013348890468478203,
        0.0013456552987918258,
        0.009145157411694527,
        -0.006839668843895197,
        0.019125374034047127,
        0.007607377599924803,
        0.00250395224429667,
        -0.07276513427495956,
        -0.03201787546277046,
        0.0640953853726387,
        0.02946040965616703,
        -0.017686158418655396,
        -0.013202255591750145,
        -0.026649024337530136,
        0.0051017217338085175,
        0.03757708892226219,
        0.0014658335130661726,
        -0.04745495691895485,
        0.02038590796291828,
        0.01580875739455223,
        0.03080574981868267,
        -0.006502850446850061,
        0.035837169736623764,
        -0.04290938004851341,
        -0.06300486624240875,
        0.008000720292329788,
        0.022511808201670647,
        0.02984294295310974,
        0.052485283464193344,
        0.027233537286520004,
        -0.03859708458185196,
        -0.0015577705344185233,
        -0.02938084304332733,
        0.25131189823150635,
        0.09015818685293198,
        0.07466708868741989,
        0.03623771667480469,
        -0.19846653938293457,
        -0.01827949285507202,
        0.07953386753797531,
        0.1735146939754486,
        -0.017178449779748917,
        -0.7670958042144775,
        -0.1407615840435028,
        0.06455380469560623,
        0.1799442023038864,
        -1.6333963871002197,
        1.4365659952163696,
        0.43398967385292053,
        -0.36394399404525757,
        0.030040662735700607,
        0.038110293447971344,
        -0.4663047194480896,
        0.04966564476490021,
        0.0030656135641038418,
        0.13823926448822021,
        -0.2553037106990814,
        -0.0022245917934924364,
        0.038559623062610626,
        0.11527092009782791,
        0.20365628600120544,
        -0.0781693160533905,
        -0.1133962944149971,
        0.04300863295793533,
        -0.10208141058683395,
        0.12676803767681122,
        0.20445716381072998,
        0.8125306963920593,
        0.014443965628743172,
        0.12061300873756409,
        -1.2143553495407104,
        0.25121569633483887,
        1.256135106086731,
        0.9003368616104126,
        0.8816086649894714,
        0.6765891909599304,
        0.09990888833999634,
        0.010861318558454514,
        -0.1979919970035553,
        -0.39846187829971313,
        -0.16806119680404663,
        -0.03642114996910095,
        -0.13071095943450928,
        -0.17179541289806366,
        -0.1416393220424652,
        0.02091418392956257,
        -0.0037387104239314795,
        0.0012567355297505856,
        0.06417863816022873,
        -0.03566757217049599,
        -0.08020083606243134,
        -0.11097697913646698,
        -0.06576208025217056,
        -0.056858234107494354,
        0.06538242846727371,
        0.09941671043634415,
        0.12059327214956284,
        0.12855321168899536,
        -0.060667477548122406,
        -0.03850268945097923,
        -0.027312954887747765,
        -0.1694868803024292,
        -0.1415032148361206,
        0.07127299904823303,
        0.23605920374393463,
        0.28711244463920593,
        0.22946380078792572,
        -0.07365676015615463,
        -0.13327918946743011,
        -0.11173580586910248,
        -0.2621936500072479,
        -0.3029985725879669,
        -0.12565971910953522,
        -0.05410865321755409,
        -0.044795602560043335,
        0.16811539232730865,
        -0.2717885375022888,
        0.3518386483192444,
        -0.43020737171173096,
        0.19955338537693024,
        -0.5398813486099243,
        -0.372272253036499,
        -0.48493534326553345,
        0.13776879012584686,
        -0.31548407673835754,
        -1.0071769952774048,
        0.9720495939254761,
        0.08927750587463379,
        0.4860469102859497,
        -0.41318851709365845,
        0.6283586621284485,
        0.11744138598442078,
        -0.2905515432357788,
        0.08440858125686646,
        -0.36150020360946655,
        -0.24026882648468018,
        -0.015333537012338638,
        0.04913448169827461,
        -0.07333385199308395,
        -0.0967327356338501,
        -0.03196680173277855,
        -0.03722464293241501,
        0.0963793471455574,
        0.1951412558555603,
        -0.11860205233097076,
        -0.08229542523622513,
        0.05306897684931755,
        -0.0043760910630226135,
        0.055478472262620926,
        0.003222038270905614,
        0.1181885302066803,
        0.10547173023223877,
        0.697421133518219,
        -0.7905635833740234,
        -0.0801348090171814,
        0.6636601090431213,
        0.4035535752773285,
        0.4962281584739685,
        0.5325771570205688,
        0.20509731769561768,
        0.4850892424583435,
        -0.036378324031829834,
        -0.317620187997818,
        0.001782041508704424,
        -0.09026920795440674,
        -0.061115387827157974,
        -0.1037878692150116,
        -0.1397254765033722,
        0.1264483779668808,
        0.07316488027572632,
        0.06502562016248703,
        0.009959517046809196,
        0.017511755228042603,
        -0.021319659426808357,
        -0.04640541598200798,
        -0.22135840356349945,
        -0.06912247091531754,
        0.12368956953287125,
        0.051078688353300095,
        0.01956668123602867,
        0.07917319983243942,
        0.026798520237207413,
        0.07226477563381195,
        0.09440720826387405,
        -0.05337563157081604,
        0.025318872183561325,
        -0.04053271934390068,
        0.06109946221113205,
        0.13178884983062744,
        0.06632888317108154,
        -0.1686042696237564,
        -0.12117661535739899,
        -0.07789652049541473,
        -0.12199586629867554,
        -0.14700005948543549,
        -0.08726388216018677,
        0.01662430725991726,
        0.059259939938783646,
        0.06904708594083786,
        -0.11814545094966888,
        0.08338585495948792,
        -0.08788856863975525,
        -0.11596832424402237,
        0.20098789036273956,
        -0.3563287854194641,
        -0.17602108418941498,
        -0.08853817731142044,
        -0.29384711384773254,
        -1.1026660203933716,
        0.4231657385826111,
        -0.10140176862478256,
        0.2056276947259903,
        -0.12341141700744629,
        0.32267865538597107,
        -0.08214918524026871,
        -0.2028476446866989,
        -0.7773561477661133,
        -0.49343836307525635,
        0.2744486629962921,
        -0.017604241147637367,
        0.011826791800558567,
        0.17751915752887726,
        -0.21564188599586487,
        -0.02726062759757042,
        0.04799477756023407,
        0.10082360357046127,
        0.1297779083251953,
        -0.05457332730293274,
        -0.04317695274949074,
        -0.04279197379946709,
        -0.22675426304340363,
        0.0643947571516037,
        0.05439374968409538,
        0.12032119184732437,
        -0.00815736223012209,
        0.3616471588611603,
        -1.1749358177185059,
        0.2135806679725647,
        0.1390712410211563,
        0.17274416983127594,
        0.37388426065444946,
        0.3814751207828522,
        0.040975648909807205,
        0.3037833273410797,
        0.13704709708690643,
        0.21429824829101562,
        -0.11068914830684662,
        -0.15924476087093353,
        -0.09083672612905502,
        -0.03758230432868004,
        -0.04946823790669441,
        0.0504746250808239,
        0.07567498832941055,
        0.015680480748414993,
        -0.007910030893981457,
        0.057313691824674606,
        -0.11219597607851028,
        -0.02764264866709709,
        -0.09572599828243256,
        0.04303787276148796,
        0.09852588921785355,
        0.14696435630321503,
        0.025921696797013283,
        0.0030702005606144667,
        -0.02275492250919342,
        0.19355186820030212,
        0.10452510416507721,
        0.13091719150543213,
        0.04717274010181427,
        -0.05121568217873573,
        -0.11171659082174301,
        0.06111146882176399,
        0.10296522825956345,
        -0.11879535019397736,
        -0.15079931914806366,
        -0.1670803427696228,
        -0.09731151908636093,
        -0.1388944834470749,
        -0.11435820162296295,
        -0.025330375880002975,
        0.16350574791431427,
        -0.10978423058986664,
        -0.1257893592119217,
        -0.13217787444591522,
        -0.010645575821399689,
        0.03708673268556595,
        0.030949842184782028,
        -0.10237718373537064,
        -0.18029829859733582,
        -0.5984252095222473,
        0.04166342318058014,
        -1.038811445236206,
        0.3639959394931793,
        -0.10882244259119034,
        0.023589130491018295,
        0.049926500767469406,
        0.18688344955444336,
        -0.22047561407089233,
        -0.11187305301427841,
        -0.48098355531692505,
        -0.29820743203163147,
        0.387748122215271,
        -0.03745085373520851,
        -0.04311702027916908,
        0.150460347533226,
        -0.16957776248455048,
        -0.027972765266895294,
        -0.005122110713273287,
        0.11592181771993637,
        0.22928783297538757,
        -0.06889858841896057,
        -0.0684160515666008,
        -0.0004831793194171041,
        -0.13164900243282318,
        0.0910993367433548,
        0.1284460723400116,
        0.04321052134037018,
        -0.14547666907310486,
        -0.007708264980465174,
        -0.8863333463668823,
        0.07581839710474014,
        -0.22382377088069916,
        -0.08595704287290573,
        0.07941429316997528,
        0.284086674451828,
        -0.11405254155397415,
        0.2687091529369354,
        0.0816163569688797,
        0.5875508785247803,
        0.0432182215154171,
        -0.07996872812509537,
        -0.18911434710025787,
        -0.011632154695689678,
        -0.043225422501564026,
        -0.07365992665290833,
        0.04503564536571503,
        -0.08553978055715561,
        -0.08763546496629715,
        -0.027129095047712326,
        -0.028337940573692322,
        -0.06709357351064682,
        -0.08478634804487228,
        0.013569406233727932,
        0.09762682020664215,
        0.09981391578912735,
        0.0332636721432209,
        -0.09069760888814926,
        -0.11987236142158508,
        0.09413758665323257,
        0.07250243425369263,
        0.038827359676361084,
        0.00872606597840786,
        -0.033376313745975494,
        -0.029320433735847473,
        0.06790248304605484,
        0.09038108587265015,
        -0.08397693186998367,
        -0.18995781242847443,
        -0.20065973699092865,
        -0.10486290603876114,
        -0.11667521297931671,
        -0.10736844688653946,
        -0.08029603213071823,
        0.08816885203123093,
        -0.13441510498523712,
        -0.06940797716379166,
        -0.2987159788608551,
        0.13454899191856384,
        -0.03675999864935875,
        0.216642826795578,
        -0.04229924827814102,
        -0.08383888006210327,
        -0.5018947720527649,
        0.016414567828178406,
        -0.7111936807632446,
        0.40046510100364685,
        -0.05128855258226395,
        -0.0979154109954834,
        -0.036320190876722336,
        2.3425023555755615,
        0.008946769870817661,
        -0.24227868020534515,
        -0.4010293185710907,
        0.04914794862270355,
        -0.32994550466537476,
        0.011918948963284492,
        0.021419836208224297,
        -0.1964416801929474,
        -1.6665483713150024,
        -0.04698823764920235,
        0.007597099989652634,
        -0.0097394660115242,
        0.05846497043967247,
        0.05643749609589577,
        -0.002128742402419448,
        0.008048315532505512,
        -0.026119936257600784,
        0.004125285428017378,
        -0.047562990337610245,
        -0.7237914204597473,
        -0.03288505598902702,
        -0.10376692563295364,
        -0.1083761602640152,
        -0.20348308980464935,
        -0.11774467676877975,
        0.04883282259106636,
        0.12732866406440735,
        0.23223431408405304,
        0.1501348912715912,
        0.1134360060095787,
        0.22148571908473969,
        -0.11305981874465942,
        -0.054358258843421936,
        -0.10615497082471848,
        -0.09196748584508896,
        0.009852231480181217,
        0.06367246061563492,
        -0.05411681905388832,
        -0.019691474735736847,
        -0.009457129053771496,
        0.07091996818780899,
        -0.042781196534633636,
        0.04076800495386124,
        -0.051653191447257996,
        0.04332547262310982,
        0.000393484573578462,
        -0.10287823528051376,
        -0.05327184870839119,
        -0.005841991864144802,
        0.058851081877946854,
        -0.09120256453752518,
        0.007011782843619585,
        0.044570133090019226,
        0.05758485570549965,
        0.031204894185066223,
        0.07138413190841675,
        0.0075147273018956184,
        0.023390918970108032,
        0.09086669981479645,
        -0.03925439715385437,
        0.06452647596597672,
        -0.057073138654232025,
        0.035827457904815674,
        -0.03728226199746132,
        -0.010419591329991817,
        -0.10511253774166107,
        0.044824324548244476,
        -0.013211159966886044,
        0.32157599925994873,
        -0.27373218536376953,
        -0.24979345500469208,
        -0.07935892790555954,
        0.07585800439119339,
        0.00838500913232565,
        -0.1739402413368225,
        0.03041926398873329,
        -0.02450491115450859,
        -0.1805873066186905,
        -0.5520802736282349,
        -0.0246282946318388,
        0.012228446081280708,
        -0.17047573626041412,
        0.6746031045913696,
        -0.05774359405040741,
        -0.13555438816547394,
        -0.3359696865081787,
        0.026293018832802773,
        -0.14351099729537964,
        0.04108938202261925,
        -0.01574006676673889,
        0.05561937764286995,
        -0.8091551661491394,
        0.018472174182534218,
        0.04734281823039055,
        -0.014637239277362823,
        0.09166784584522247,
        0.022360216826200485,
        0.07121822237968445,
        0.0421852245926857,
        -0.08525916188955307,
        -0.04341469705104828,
        -0.07266933470964432,
        0.03295629099011421,
        -0.10357653349637985,
        -0.17075949907302856,
        1.1896544694900513,
        -0.11306598782539368,
        0.2450895756483078,
        0.00799147691577673,
        0.10173343867063522,
        0.1513093113899231,
        0.08155442029237747,
        -0.026638291776180267,
        0.02439737319946289,
        -0.02157585509121418,
        -0.05149069428443909,
        -0.05037428438663483,
        -0.005891340784728527,
        0.03265555948019028,
        0.08845458924770355,
        0.026821764186024666,
        0.008929186500608921,
        0.07849229127168655,
        0.0398995615541935,
        0.01276034489274025,
        0.002541682217270136,
        -0.03303427994251251,
        0.008222565986216068,
        -0.009791828691959381,
        -0.04825020954012871,
        0.01126405131071806,
        0.021707162261009216,
        0.045021988451480865,
        -0.02878248505294323,
        0.04646747186779976,
        0.03318855166435242,
        -0.005825893022119999,
        0.01696285791695118,
        0.04075377434492111,
        -0.047081343829631805,
        0.02918977290391922,
        0.04832722619175911,
        -0.012044531293213367,
        0.022722316905856133,
        -0.061560891568660736,
        -0.02472359873354435,
        -0.05997142195701599,
        -0.0782996267080307,
        -0.042994383722543716,
        0.052592918276786804,
        0.03418734669685364,
        0.23213346302509308,
        -0.05069404095411301,
        0.08431584388017654,
        -0.022313907742500305,
        0.210542693734169,
        -0.042308297008275986,
        0.04712020233273506,
        -0.047829631716012955,
        -0.055703550577163696,
        -0.26877743005752563,
        -0.24823181331157684,
        0.08141786605119705,
        0.038850393146276474,
        -0.021062128245830536,
        0.5088297128677368,
        0.031744640320539474,
        -0.06338369101285934,
        -0.014709815382957458,
        -0.01943461038172245,
        0.08164671808481216,
        0.047190114855766296,
        0.021965131163597107,
        0.04480087757110596,
        -0.2935040593147278,
        -0.04260176792740822,
        -0.004484501667320728,
        0.009595025330781937,
        -0.008342035114765167,
        0.05748170241713524,
        0.053755488246679306,
        -0.02337324246764183,
        -0.12952417135238647,
        -0.0024308294523507357,
        -0.03853882849216461,
        0.20613166689872742,
        -0.0965443104505539,
        -0.17439624667167664,
        0.5664359331130981,
        0.027618668973445892,
        0.19951970875263214,
        -0.046212609857320786,
        0.10928134620189667,
        0.10713281482458115,
        0.05963607504963875,
        0.06148505210876465,
        -0.045887675136327744,
        0.061592306941747665,
        0.030765604227781296,
        -0.026493053883314133,
        0.03664053976535797,
        0.06316125392913818,
        0.08542788773775101,
        -0.014726554974913597,
        -0.023072777315974236,
        -0.007556609343737364,
        0.02227911353111267,
        -0.018125643953680992,
        0.028141241520643234,
        -0.038775645196437836,
        0.021666480228304863,
        -0.023306861519813538,
        -0.0504276417195797,
        -0.0009978200541809201,
        0.0014470448950305581,
        0.03991841524839401,
        -0.02741607464849949,
        -0.003778313286602497,
        -0.016393987461924553,
        -0.012214398011565208,
        -0.0011406795820221305,
        0.029081759974360466,
        -0.03349507227540016,
        0.0487062893807888,
        0.06582518666982651,
        -0.03493889421224594,
        -0.03051329404115677,
        0.026388587430119514,
        0.001306704943999648,
        0.021525124087929726,
        -0.043570201843976974,
        -0.016430743038654327,
        0.03641577437520027,
        -0.014686482958495617,
        0.09690284729003906,
        -0.007963377051055431,
        0.032288841903209686,
        -0.05488892272114754,
        0.02802114374935627,
        -0.1344977617263794,
        0.06678442656993866,
        -0.010060016997158527,
        -0.10778860747814178,
        -0.6377122402191162,
        -0.13911746442317963,
        -0.037122007459402084,
        -0.020429018884897232,
        -0.08717586100101471,
        0.2804611027240753,
        -0.023356245830655098,
        -0.0024132784456014633,
        0.04563485085964203,
        0.06488335132598877,
        0.04340432211756706,
        0.03208167105913162,
        -0.009259196929633617,
        0.10734879225492477,
        0.0381227508187294,
        -0.003764380468055606,
        -0.03432276472449303,
        0.048849303275346756,
        0.06245870143175125,
        0.04477526620030403,
        -0.030073948204517365,
        -0.019551780074834824,
        -0.03530494123697281,
        -0.10355536639690399,
        -0.15697790682315826,
        0.22563844919204712,
        -0.1129240021109581,
        -0.09032447636127472,
        -0.060733143240213394,
        -0.17667478322982788,
        0.02159321866929531,
        -0.013453636318445206,
        0.03726356476545334,
        0.09065374732017517,
        0.04087449237704277,
        0.15702703595161438,
        -0.002179998904466629,
        0.13403309881687164,
        0.00625857338309288,
        0.030208125710487366,
        0.04853015020489693,
        -0.006096162833273411,
        0.06886176019906998,
        -0.013041451573371887,
        0.009123358875513077,
        0.030550295487046242,
        0.01606818288564682,
        -0.011008746922016144,
        0.0180809386074543,
        0.019182929769158363,
        0.04509869962930679,
        0.018078556284308434,
        -0.06343410909175873,
        -0.0067177885212004185,
        -0.01744750887155533,
        -0.023892588913440704,
        -0.00965745747089386,
        -0.028724711388349533,
        -0.012242157943546772,
        0.02197183296084404,
        0.004309718031436205,
        0.028899241238832474,
        -0.013650971464812756,
        -0.0029617133550345898,
        0.04288540408015251,
        -0.05669136717915535,
        -0.028743507340550423,
        -0.009350421838462353,
        0.005476841703057289,
        -0.08772403746843338,
        -0.022335324436426163,
        0.04141693934798241,
        -0.003433713922277093,
        -0.028373416513204575,
        -0.08173537999391556,
        0.027536123991012573,
        0.23866477608680725,
        -0.14367954432964325,
        -0.039386820048093796,
        -0.07479654997587204,
        0.17830713093280792,
        0.012879133224487305,
        0.11055595427751541,
        -0.6418084502220154,
        -0.01157053466886282,
        -0.047733236104249954,
        -0.16245171427726746,
        0.6564910411834717,
        -0.4925929605960846,
        -0.10616282373666763,
        -0.10374242812395096,
        -0.24946802854537964,
        -0.021441901102662086,
        0.6735228896141052,
        -0.014401347376406193,
        -0.05062779784202576,
        1.335986852645874,
        0.8963978290557861,
        -0.11844675242900848,
        -0.14666254818439484,
        -0.007086361758410931,
        0.10885550826787949,
        -0.0029110624454915524,
        0.0140226474031806,
        -0.0907217338681221,
        0.6057320833206177,
        0.19042278826236725,
        -0.6134656667709351,
        0.844321608543396,
        0.723604142665863,
        -0.11997128278017044,
        -0.976224958896637,
        -0.6297804117202759,
        -0.4653465747833252,
        -0.2883290648460388,
        -0.38584157824516296,
        -0.09090027958154678,
        -0.15078487992286682,
        -0.09609313309192657,
        -0.3038661479949951,
        0.4982602000236511,
        0.03364859148859978,
        -0.0572238527238369,
        -0.04895547032356262,
        -0.1636875569820404,
        0.25529929995536804,
        0.01935180090367794,
        0.07805861532688141,
        0.11810243129730225,
        0.08625321835279465,
        0.02763291634619236,
        -0.006717865355312824,
        0.04425003379583359,
        0.022084396332502365,
        0.02979244664311409,
        0.162140890955925,
        -0.05000099167227745,
        -0.22017456591129303,
        -0.09033558517694473,
        -0.026947926729917526,
        0.053323980420827866,
        0.19318406283855438,
        0.20216161012649536,
        -0.011720394715666771,
        -0.08741535991430283,
        -0.13990382850170135,
        -0.23451614379882812,
        0.008388293907046318,
        -0.13609929382801056,
        0.01430314127355814,
        0.027768539264798164,
        0.26916658878326416,
        0.29024192690849304,
        0.27837446331977844,
        -0.10533354431390762,
        -0.2664518654346466,
        -0.13660919666290283,
        -0.2475137859582901,
        -1.3707237243652344,
        -0.9235769510269165,
        0.10726119577884674,
        -0.055174682289361954,
        -0.7426646947860718,
        -0.24877069890499115,
        0.5446246266365051,
        0.6238541603088379,
        -0.09495338052511215,
        -2.251332998275757,
        0.13476793467998505,
        -0.0005473748315125704,
        -0.383559912443161,
        -0.4072408676147461,
        -0.48019179701805115,
        0.1094522699713707,
        0.43738678097724915,
        -0.0512075237929821,
        -0.26374679803848267,
        0.036368414759635925,
        -0.03502889350056648,
        1.7936073541641235,
        -0.522070050239563,
        -0.08928772807121277,
        -0.06624127924442291,
        -0.04186229035258293,
        0.07734496146440506,
        -0.06418538093566895,
        -0.019521335139870644,
        0.03599294275045395,
        0.31804463267326355,
        0.23292496800422668,
        0.06598003208637238,
        0.22904883325099945,
        0.031194552779197693,
        -0.2021433711051941,
        -0.493327796459198,
        -0.3546159863471985,
        0.22166481614112854,
        0.05053285136818886,
        -0.07705648988485336,
        -0.24686051905155182,
        -0.0752764344215393,
        -0.003699810476973653,
        -0.42258667945861816,
        0.21435688436031342,
        -0.053185299038887024,
        0.029734615236520767,
        0.2037278115749359,
        0.02596295066177845,
        0.2384045571088791,
        -0.013852616772055626,
        -0.04845906421542168,
        0.0495104156434536,
        0.0010412592673674226,
        0.06679704785346985,
        0.025628458708524704,
        0.05886470153927803,
        0.015753373503684998,
        0.08185061067342758,
        0.13272733986377716,
        -0.09208713471889496,
        -0.1283082216978073,
        -0.04435483366250992,
        -0.04138804227113724,
        -0.02314421348273754,
        -0.047388769686222076,
        0.0009187189280055463,
        -0.05623231083154678,
        -0.06429003179073334,
        -0.0009141330374404788,
        0.0346517451107502,
        -0.05749347060918808,
        -0.11479505896568298,
        -0.0654933750629425,
        -0.19973443448543549,
        0.04783608391880989,
        0.14415593445301056,
        0.030485469847917557,
        -0.25429511070251465,
        -0.010279817506670952,
        -0.10442974418401718,
        -0.50400310754776,
        0.060608137398958206,
        -0.40723076462745667,
        0.025171970948576927,
        -0.0700317993760109,
        -0.7859593629837036,
        -0.1712026447057724,
        0.2022545039653778,
        0.10683905333280563,
        0.3861061930656433,
        -1.1871501207351685,
        0.12175124883651733,
        -0.07459429651498795,
        -0.48566511273384094,
        0.032210614532232285,
        -0.2784181833267212,
        0.2428005188703537,
        0.6063042879104614,
        0.0607370063662529,
        -0.4999154806137085,
        -0.01971510797739029,
        -0.024185793474316597,
        0.977935254573822,
        -0.1881275475025177,
        -0.07044461369514465,
        -0.1475415676832199,
        0.013230768963694572,
        0.08737749606370926,
        0.03155872970819473,
        -0.010608089156448841,
        -0.01578488014638424,
        0.06391312181949615,
        0.16190281510353088,
        -0.22096946835517883,
        0.32058262825012207,
        0.15583369135856628,
        -0.011308672837913036,
        -0.7392916679382324,
        -0.19415371119976044,
        0.05920238047838211,
        0.20716270804405212,
        -0.004464395344257355,
        -0.21173548698425293,
        0.03912123292684555,
        0.11887805163860321,
        -0.18647658824920654,
        0.32374757528305054,
        -0.04818931221961975,
        0.04187248647212982,
        0.011935577727854252,
        -0.018103761598467827,
        0.1489151269197464,
        -0.058424681425094604,
        0.0175838191062212,
        0.07522543519735336,
        0.0007808609516359866,
        -0.061454009264707565,
        0.011152396909892559,
        0.0014451397582888603,
        0.08495601266622543,
        0.030939888209104538,
        -0.04087929055094719,
        -0.07091420888900757,
        -0.04807838052511215,
        -0.17236678302288055,
        -0.11346354335546494,
        -0.0857887715101242,
        -0.05370659381151199,
        -0.015120713040232658,
        0.05075673758983612,
        -0.02125723473727703,
        0.07187473028898239,
        -0.005012156441807747,
        0.03136259689927101,
        0.07914496213197708,
        -0.03662939742207527,
        -0.0678655207157135,
        -0.07546324282884598,
        0.20525401830673218,
        -0.11120191216468811,
        -0.11920544505119324,
        0.12703220546245575,
        -0.19845321774482727,
        0.10586615651845932,
        -0.4313907027244568,
        -0.6737784147262573,
        0.051763128489255905,
        -0.15837177634239197,
        -0.2437063604593277,
        -0.04127724841237068,
        -0.44289517402648926,
        -0.27013149857521057,
        0.4597514271736145,
        -0.5112593770027161,
        0.0420047789812088,
        -0.0485534742474556,
        -0.3893709182739258,
        0.2414209097623825,
        -0.18677131831645966,
        -0.036238301545381546,
        0.2763727009296417,
        0.15666116774082184,
        -0.12698118388652802,
        -0.010438507422804832,
        0.04664219170808792,
        0.5115606784820557,
        -0.2686021625995636,
        -0.05325618386268616,
        -0.14167805016040802,
        -0.021763069555163383,
        0.07392462342977524,
        0.02251567505300045,
        0.041588637977838516,
        -0.01735360361635685,
        -0.14765754342079163,
        -0.05079280585050583,
        -0.4283687472343445,
        0.01182471215724945,
        0.42503249645233154,
        -0.145499587059021,
        -0.4941006302833557,
        0.09349190443754196,
        0.013829736039042473,
        0.3091893494129181,
        -0.04053092002868652,
        -0.14089223742485046,
        0.05096859857439995,
        -0.07493259757757187,
        -0.3373085856437683,
        0.1375543624162674,
        -0.052373237907886505,
        -0.0018119720043614507,
        -0.0821380540728569,
        0.09577663242816925,
        0.06410710513591766,
        0.03223966434597969,
        -0.0017404456157237291,
        0.015347687527537346,
        -0.018851598724722862,
        0.0001705247414065525,
        0.015133153647184372,
        0.029916895553469658,
        0.025564661249518394,
        -0.033756155520677567,
        0.0005643472541123629,
        0.01252000592648983,
        0.07703039795160294,
        -0.02704456076025963,
        -0.07086179405450821,
        -0.05563364177942276,
        -0.02583496645092964,
        0.030253000557422638,
        0.08716781437397003,
        0.05660664290189743,
        0.009122967720031738,
        0.01253591664135456,
        0.0012761587277054787,
        -0.17165766656398773,
        -0.13723817467689514,
        0.0009842832805588841,
        0.008150717243552208,
        0.17422853410243988,
        0.015332108363509178,
        -0.05038914084434509,
        0.0640508234500885,
        -0.0869753360748291,
        -0.0772731602191925,
        0.16311201453208923,
        -0.12906256318092346,
        -0.11507673561573029,
        -0.17057588696479797,
        -0.25704360008239746,
        0.16473518311977386,
        -0.5761104822158813,
        0.36545777320861816,
        0.8833094835281372,
        0.13698528707027435,
        0.21053054928779602,
        0.23802456259727478,
        1.7946043014526367,
        -0.5827361941337585,
        0.7500689029693604,
        0.24154280126094818,
        -0.28072255849838257,
        -0.1332874596118927,
        0.36515119671821594,
        -0.04641168192028999,
        -0.031011292710900307,
        -0.756553590297699,
        0.9580796360969543,
        -0.15995611250400543,
        -0.21700257062911987,
        -0.028352702036499977,
        -0.017947696149349213,
        -0.06935809552669525,
        -0.07490953058004379,
        0.010725140571594238,
        -0.07287862151861191,
        0.18336701393127441,
        -0.47988635301589966,
        0.3287840485572815,
        0.5422570705413818,
        -0.5455580949783325,
        0.848652184009552,
        0.08012817800045013,
        0.49808794260025024,
        -0.15477468073368073,
        0.08221736550331116,
        0.043106116354465485,
        0.057700879871845245,
        0.5199046730995178,
        0.7872040867805481,
        0.49546825885772705,
        0.06373599916696548,
        0.1887163668870926,
        -0.04365696385502815,
        0.05369715765118599,
        0.044195450842380524,
        0.019438013434410095,
        0.008622019551694393,
        0.03782281279563904,
        -0.11665702611207962,
        0.06420553475618362,
        0.011880083940923214,
        -0.12035568803548813,
        0.1044626235961914,
        -0.021551132202148438,
        -0.11290217936038971,
        -0.10684701800346375,
        -0.032203834503889084,
        0.02058376558125019,
        -0.03711968660354614,
        -0.14118318259716034,
        0.027406852692365646,
        0.002014636993408203,
        -0.23867373168468475,
        -0.08419784903526306,
        -0.08024805784225464,
        0.022258523851633072,
        -0.009036385454237461,
        -0.0978492796421051,
        0.10900035500526428,
        0.006230829283595085,
        -0.09866917133331299,
        0.04089060053229332,
        -0.04015851765871048,
        -0.012292308732867241,
        -0.011221293359994888,
        0.03848770260810852,
        0.8293406367301941,
        -0.6426772475242615,
        0.31549355387687683,
        -0.025468219071626663,
        0.3808146119117737,
        0.057340286672115326,
        0.1958467662334442,
        -0.10229332000017166,
        -0.852583110332489,
        -0.9157906174659729,
        0.6516223549842834,
        0.04481581225991249,
        0.2126515805721283,
        1.5510748624801636,
        -0.31277382373809814,
        0.15863539278507233,
        0.017818432301282883,
        -0.08029214292764664,
        -0.1391305923461914,
        -0.041882701218128204,
        -0.012227288447320461,
        0.005428874399513006,
        0.03838648647069931,
        -0.21608823537826538,
        -0.09172748029232025,
        -0.17056581377983093,
        -0.03262314200401306,
        -0.0001617392699699849,
        -0.09086036682128906,
        -0.1041010245680809,
        0.021376900374889374,
        -0.01307191513478756,
        0.18066975474357605,
        -0.19129377603530884,
        -0.7018969655036926,
        0.5481482148170471,
        -1.0383756160736084,
        0.022423742339015007,
        -0.11474917829036713,
        0.4679691195487976,
        0.14500917494297028,
        -0.05126797780394554,
        -0.08226360380649567,
        -0.0028591067530214787,
        0.020831966772675514,
        0.07720247656106949,
        0.3038511276245117,
        0.011845238506793976,
        0.16283570230007172,
        0.06547850370407104,
        0.058313075453042984,
        -0.03846043348312378,
        0.04395798593759537,
        0.0055591329000890255,
        0.048143524676561356,
        -0.07204543799161911,
        0.09312767535448074,
        -0.01081260945647955,
        -0.030596928671002388,
        0.06173591688275337,
        0.034606147557497025,
        0.016038933768868446,
        -0.002091909758746624,
        0.05567193031311035,
        0.034626305103302,
        0.12723064422607422,
        -0.04371863603591919,
        -0.047484781593084335,
        0.03631407767534256,
        -0.14510680735111237,
        -0.049931738525629044,
        5.7757752074394375e-06,
        -0.09099887311458588,
        0.06163337454199791,
        -0.04757563769817352,
        0.015610346570611,
        -0.0760447084903717,
        -0.1240953654050827,
        0.002574773272499442,
        0.07298040390014648,
        0.009084521792829037,
        -0.07753413915634155,
        -0.015992814674973488,
        -0.009778647683560848,
        -0.8554312586784363,
        0.030645351856946945,
        -0.38435718417167664,
        0.06091759353876114,
        -0.3530178666114807,
        0.3560743033885956,
        -0.06225111335515976,
        0.2196872979402542,
        -0.6735585927963257,
        -0.1953718364238739,
        -0.07979212701320648,
        -0.011742192320525646,
        0.08383669704198837,
        -0.16660076379776,
        0.024142775684595108,
        -0.06334304064512253,
        0.07025448977947235,
        0.025853514671325684,
        -0.36643749475479126,
        -0.025768224149942398,
        0.0497344471514225,
        0.3837098181247711,
        -0.27858269214630127,
        -0.11035935580730438,
        -0.2505430579185486,
        -0.08354343473911285,
        0.0822681188583374,
        -0.048537589609622955,
        -0.055867861956357956,
        -0.029129933565855026,
        -0.06338956207036972,
        0.030226759612560272,
        -0.292935311794281,
        -0.3518402576446533,
        0.4250669479370117,
        -0.6424634456634521,
        -0.7427926659584045,
        -0.0825233906507492,
        0.14614813029766083,
        0.042826734483242035,
        -0.10784582048654556,
        -0.06852515786886215,
        0.0424625463783741,
        -0.10120336711406708,
        -0.0558658093214035,
        0.0919405072927475,
        -0.08644281327724457,
        0.035720936954021454,
        0.023649832233786583,
        0.008509939536452293,
        -0.032498251646757126,
        0.05527592450380325,
        0.08981579542160034,
        0.00886447075754404,
        -0.0186952855437994,
        0.02796175517141819,
        0.05296717956662178,
        -0.030537644401192665,
        0.03655014932155609,
        0.027987107634544373,
        -0.04037591442465782,
        0.053932271897792816,
        -0.024403095245361328,
        0.0035345766227692366,
        0.04586075246334076,
        0.0031815499532967806,
        -0.0279571283608675,
        -0.07560256123542786,
        -0.11976760625839233,
        -0.012638876214623451,
        0.023672254756093025,
        -0.00346703571267426,
        0.08267714083194733,
        -0.12885165214538574,
        -0.06440486013889313,
        -0.10326296091079712,
        -0.08469513058662415,
        0.04844794422388077,
        0.04311569407582283,
        -0.018251702189445496,
        -0.0017938835080713034,
        -0.0402681939303875,
        -0.24078033864498138,
        -0.5214605331420898,
        0.1058620736002922,
        -0.7622597813606262,
        -0.1585380584001541,
        -0.3974468410015106,
        0.11754202097654343,
        -0.10718709230422974,
        0.1855664700269699,
        -0.9970055222511292,
        -0.3722601532936096,
        -0.06562915444374084,
        -0.045973021537065506,
        -0.12649232149124146,
        -0.08173990249633789,
        0.10602936148643494,
        -0.05057906359434128,
        0.48691636323928833,
        -0.14492741227149963,
        -0.18363159894943237,
        -0.04991300776600838,
        0.026891525834798813,
        0.48734980821609497,
        -0.27511101961135864,
        -0.10603602230548859,
        -0.2089242935180664,
        -0.055532053112983704,
        0.06711132824420929,
        -0.13834093511104584,
        -0.1463586390018463,
        -0.039895739406347275,
        0.07119455933570862,
        0.09358329325914383,
        -0.1800607144832611,
        -0.3073720932006836,
        0.035160817205905914,
        -0.7236027121543884,
        -1.1979724168777466,
        -0.14031586050987244,
        0.1501179039478302,
        -0.02840006723999977,
        -0.01523725874722004,
        -0.16633771359920502,
        0.05191228166222572,
        -0.06717544049024582,
        -0.09009630978107452,
        0.3945922553539276,
        0.08536119759082794,
        0.12358399480581284,
        0.024521604180336,
        0.10360372811555862,
        0.033828575164079666,
        0.01730635203421116,
        0.049749866127967834,
        0.03809185326099396,
        -0.037347689270973206,
        0.043421320617198944,
        -0.048922497779130936,
        -0.005414891988039017,
        0.006193290464580059,
        -0.003282165853306651,
        0.027294933795928955,
        0.008577876724302769,
        0.12041934579610825,
        -0.06267981231212616,
        0.0072084940038621426,
        0.058693576604127884,
        -0.05341007933020592,
        -0.11317488551139832,
        0.002202147152274847,
        -0.0003124905051663518,
        0.036400891840457916,
        0.026625795289874077,
        0.029839899390935898,
        -0.23553965985774994,
        -0.12358574569225311,
        -0.2253202199935913,
        -0.10795833170413971,
        -0.03180684149265289,
        0.07894285023212433,
        0.10864533483982086,
        -0.06496930867433548,
        -0.004769236780703068,
        -0.3703668713569641,
        -0.5005497336387634,
        0.2777547836303711,
        -0.6056983470916748,
        -0.15867766737937927,
        -0.35064032673835754,
        0.16073709726333618,
        0.09957423061132431,
        0.5480285882949829,
        -1.1962956190109253,
        -0.7631344199180603,
        -0.1507606953382492,
        -0.24779169261455536,
        0.048618681728839874,
        0.4577500522136688,
        -0.3595065772533417,
        0.03664134815335274,
        0.5807734131813049,
        1.0493533611297607,
        -0.022253304719924927,
        -0.029462581500411034,
        -0.05442576855421066,
        0.09593099355697632,
        0.26568883657455444,
        -0.06695953756570816,
        -0.1576160043478012,
        0.05617669224739075,
        0.1367780566215515,
        0.032076396048069,
        -0.05400483310222626,
        -0.29579851031303406,
        -0.12091637402772903,
        0.10036922991275787,
        0.8044025897979736,
        -0.10882009565830231,
        2.0137388706207275,
        0.4849008321762085,
        0.9609204530715942,
        -0.05977514758706093,
        -0.6752487421035767,
        -0.493363618850708,
        -1.5740594863891602,
        -1.1964380741119385,
        -0.4159737527370453,
        -1.198026418685913,
        -0.5934736728668213,
        -0.516944408416748,
        0.0363832525908947,
        0.07851990312337875,
        -0.10498178005218506,
        -0.043849002569913864,
        -0.09593796730041504,
        -0.09629953652620316,
        -0.030227739363908768,
        -0.051839008927345276,
        0.18455606698989868,
        -0.00851792749017477,
        0.042527828365564346,
        -0.018872477114200592,
        -0.009865988045930862,
        -0.002614816417917609,
        -0.10500696301460266,
        0.11905863881111145,
        0.2443726509809494,
        0.20559602975845337,
        -0.14321443438529968,
        -0.1316567063331604,
        0.3233069181442261,
        -0.11752945929765701,
        0.3932573199272156,
        0.4835737347602844,
        0.4555785059928894,
        0.29147326946258545,
        0.4762265384197235,
        0.05317241698503494,
        -0.050630759447813034,
        -0.04872932657599449,
        -0.0010362601606175303,
        0.08181603252887726,
        0.08411753177642822,
        -0.0009444620227441192,
        -0.05694069713354111,
        -0.03732796758413315,
        -0.8132750391960144,
        0.16161872446537018,
        0.5706086158752441,
        -1.0449377298355103,
        0.3798464834690094,
        -0.08238799124956131,
        -0.6932501792907715,
        -0.4800766706466675,
        -0.007813391275703907,
        -1.5509843826293945,
        -1.562420129776001,
        -0.28287941217422485,
        -0.119050994515419,
        -0.13662801682949066,
        -0.04159931465983391,
        -0.09167574346065521,
        0.02128082700073719,
        0.2177404761314392,
        0.3840586245059967,
        -0.18793930113315582,
        0.03274955227971077,
        -0.04374827817082405,
        -0.21093593537807465,
        0.2692609131336212,
        -0.03823275491595268,
        -0.1389567106962204,
        0.045395076274871826,
        0.1762317419052124,
        0.007895182818174362,
        -0.04132708162069321,
        -0.338279128074646,
        -0.003432599361985922,
        0.012886055745184422,
        0.45280158519744873,
        -0.1449148952960968,
        1.7806118726730347,
        0.27333107590675354,
        0.8063428997993469,
        0.27291086316108704,
